<?xml version="1.0"?>
<opencv_storage>
<cascade>
  <stageType>BOOST</stageType>
  <featureType>HAAR</featureType>
  <height>50</height>
  <width>50</width>
  <stageParams>
    <boostType>GAB</boostType>
    <minHitRate>9.9500000476837158e-01</minHitRate>
    <maxFalseAlarm>5.0000000000000000e-01</maxFalseAlarm>
    <weightTrimRate>9.4999998807907104e-01</weightTrimRate>
    <maxDepth>1</maxDepth>
    <maxWeakCount>100</maxWeakCount></stageParams>
  <featureParams>
    <maxCatCount>0</maxCatCount>
    <featSize>1</featSize>
    <mode>BASIC</mode></featureParams>
  <stageNum>10</stageNum>
  <stages>
    <!-- stage 0 -->
    <_>
      <maxWeakCount>2</maxWeakCount>
      <stageThreshold>-2.5660368800163269e-01</stageThreshold>
      <weakClassifiers>
        <_>
          <internalNodes>
            0 -1 21 3.3968850970268250e-02</internalNodes>
          <leafValues>
            -9.8400002717971802e-01 7.6237624883651733e-01</leafValues></_>
        <_>
          <internalNodes>
            0 -1 17 -4.2310919612646103e-02</internalNodes>
          <leafValues>
            7.2739630937576294e-01 -9.7262740135192871e-01</leafValues></_></weakClassifiers></_>
    <!-- stage 1 -->
    <_>
      <maxWeakCount>3</maxWeakCount>
      <stageThreshold>-1.2781434059143066e+00</stageThreshold>
      <weakClassifiers>
        <_>
          <internalNodes>
            0 -1 10 3.7587061524391174e-02</internalNodes>
          <leafValues>
            -9.8529410362243652e-01 7.1428573131561279e-01</leafValues></_>
        <_>
          <internalNodes>
            0 -1 32 4.4797748327255249e-02</internalNodes>
          <leafValues>
            -9.6148252487182617e-01 6.5321534872055054e-01</leafValues></_>
        <_>
          <internalNodes>
            0 -1 3 -2.9944371432065964e-02</internalNodes>
          <leafValues>
            6.6863322257995605e-01 -9.3740886449813843e-01</leafValues></_></weakClassifiers></_>
    <!-- stage 2 -->
    <_>
      <maxWeakCount>3</maxWeakCount>
      <stageThreshold>-1.4648853540420532e+00</stageThreshold>
      <weakClassifiers>
        <_>
          <internalNodes>
            0 -1 28 -2.8052743524312973e-02</internalNodes>
          <leafValues>
            5.4455447196960449e-01 -9.6933335065841675e-01</leafValues></_>
        <_>
          <internalNodes>
            0 -1 27 -2.5845177471637726e-02</internalNodes>
          <leafValues>
            4.9124425649642944e-01 -9.0327149629592896e-01</leafValues></_>
        <_>
          <internalNodes>
            0 -1 23 -2.3416887968778610e-02</internalNodes>
          <leafValues>
            5.6524127721786499e-01 -9.8679620027542114e-01</leafValues></_></weakClassifiers></_>
    <!-- stage 3 -->
    <_>
      <maxWeakCount>3</maxWeakCount>
      <stageThreshold>-1.6584744453430176e+00</stageThreshold>
      <weakClassifiers>
        <_>
          <internalNodes>
            0 -1 6 2.8561787679791451e-02</internalNodes>
          <leafValues>
            -9.2769527435302734e-01 7.3076921701431274e-01</leafValues></_>
        <_>
          <internalNodes>
            0 -1 8 -2.3881845176219940e-02</internalNodes>
          <leafValues>
            2.0268657803535461e-01 -9.2414230108261108e-01</leafValues></_>
        <_>
          <internalNodes>
            0 -1 12 -1.2021240778267384e-02</internalNodes>
          <leafValues>
            3.3891195058822632e-01 -9.3346571922302246e-01</leafValues></_></weakClassifiers></_>
    <!-- stage 4 -->
    <_>
      <maxWeakCount>4</maxWeakCount>
      <stageThreshold>-2.2258563041687012e+00</stageThreshold>
      <weakClassifiers>
        <_>
          <internalNodes>
            0 -1 11 2.0539653301239014e-01</internalNodes>
          <leafValues>
            -9.2411577701568604e-01 8.2608693838119507e-01</leafValues></_>
        <_>
          <internalNodes>
            0 -1 26 -2.1840855479240417e-02</internalNodes>
          <leafValues>
            8.3551973104476929e-01 -7.9924577474594116e-01</leafValues></_>
        <_>
          <internalNodes>
            0 -1 16 9.3750245869159698e-03</internalNodes>
          <leafValues>
            -8.7970304489135742e-01 4.4808807969093323e-01</leafValues></_>
        <_>
          <internalNodes>
            0 -1 31 1.9729305058717728e-02</internalNodes>
          <leafValues>
            -9.4725018739700317e-01 3.7720823287963867e-01</leafValues></_></weakClassifiers></_>
    <!-- stage 5 -->
    <_>
      <maxWeakCount>4</maxWeakCount>
      <stageThreshold>-1.9678362607955933e+00</stageThreshold>
      <weakClassifiers>
        <_>
          <internalNodes>
            0 -1 9 6.3374839723110199e-02</internalNodes>
          <leafValues>
            -9.3139159679412842e-01 7.1428573131561279e-01</leafValues></_>
        <_>
          <internalNodes>
            0 -1 22 -2.5661446154117584e-02</internalNodes>
          <leafValues>
            6.4225512742996216e-01 -8.9114475250244141e-01</leafValues></_>
        <_>
          <internalNodes>
            0 -1 0 -8.4250696003437042e-02</internalNodes>
          <leafValues>
            6.3808834552764893e-01 -7.6008087396621704e-01</leafValues></_>
        <_>
          <internalNodes>
            0 -1 29 1.7132524400949478e-02</internalNodes>
          <leafValues>
            -7.7096271514892578e-01 6.1478090286254883e-01</leafValues></_></weakClassifiers></_>
    <!-- stage 6 -->
    <_>
      <maxWeakCount>4</maxWeakCount>
      <stageThreshold>-2.1332724094390869e+00</stageThreshold>
      <weakClassifiers>
        <_>
          <internalNodes>
            0 -1 30 -1.0095240175724030e-01</internalNodes>
          <leafValues>
            8.6956518888473511e-01 -9.2540192604064941e-01</leafValues></_>
        <_>
          <internalNodes>
            0 -1 14 -2.1452937275171280e-02</internalNodes>
          <leafValues>
            8.8278001546859741e-01 -7.7553188800811768e-01</leafValues></_>
        <_>
          <internalNodes>
            0 -1 20 1.5780996531248093e-02</internalNodes>
          <leafValues>
            -9.3850421905517578e-01 3.8243326544761658e-01</leafValues></_>
        <_>
          <internalNodes>
            0 -1 19 7.4353488162159920e-04</internalNodes>
          <leafValues>
            -7.8832882642745972e-01 5.0616562366485596e-01</leafValues></_></weakClassifiers></_>
    <!-- stage 7 -->
    <_>
      <maxWeakCount>4</maxWeakCount>
      <stageThreshold>-1.8296012878417969e+00</stageThreshold>
      <weakClassifiers>
        <_>
          <internalNodes>
            0 -1 24 -2.8947353363037109e-02</internalNodes>
          <leafValues>
            7.4074071645736694e-01 -9.3018746376037598e-01</leafValues></_>
        <_>
          <internalNodes>
            0 -1 13 1.6689920425415039e-01</internalNodes>
          <leafValues>
            -7.4359649419784546e-01 7.8434002399444580e-01</leafValues></_>
        <_>
          <internalNodes>
            0 -1 18 1.2023655697703362e-02</internalNodes>
          <leafValues>
            -6.6612899303436279e-01 6.8544900417327881e-01</leafValues></_>
        <_>
          <internalNodes>
            0 -1 5 9.7026806324720383e-03</internalNodes>
          <leafValues>
            -7.8666603565216064e-01 5.1031160354614258e-01</leafValues></_></weakClassifiers></_>
    <!-- stage 8 -->
    <_>
      <maxWeakCount>4</maxWeakCount>
      <stageThreshold>-2.1373357772827148e+00</stageThreshold>
      <weakClassifiers>
        <_>
          <internalNodes>
            0 -1 7 -3.6552485078573227e-02</internalNodes>
          <leafValues>
            7.9591834545135498e-01 -9.2654639482498169e-01</leafValues></_>
        <_>
          <internalNodes>
            0 -1 1 -4.2508102953433990e-02</internalNodes>
          <leafValues>
            3.2569468021392822e-01 -8.4109789133071899e-01</leafValues></_>
        <_>
          <internalNodes>
            0 -1 33 1.0161487385630608e-02</internalNodes>
          <leafValues>
            -8.5561943054199219e-01 3.6492106318473816e-01</leafValues></_>
        <_>
          <internalNodes>
            0 -1 4 -1.5972217544913292e-02</internalNodes>
          <leafValues>
            5.7857179641723633e-01 -6.8086469173431396e-01</leafValues></_></weakClassifiers></_>
    <!-- stage 9 -->
    <_>
      <maxWeakCount>3</maxWeakCount>
      <stageThreshold>-1.3926330804824829e+00</stageThreshold>
      <weakClassifiers>
        <_>
          <internalNodes>
            0 -1 25 -4.5672688633203506e-02</internalNodes>
          <leafValues>
            5.5882352590560913e-01 -9.3737769126892090e-01</leafValues></_>
        <_>
          <internalNodes>
            0 -1 15 4.8202835023403168e-02</internalNodes>
          <leafValues>
            -7.9072266817092896e-01 7.9638731479644775e-01</leafValues></_>
        <_>
          <internalNodes>
            0 -1 2 -2.8899341821670532e-02</internalNodes>
          <leafValues>
            3.3546721935272217e-01 -9.4889909029006958e-01</leafValues></_></weakClassifiers></_></stages>
  <features>
    <_>
      <rects>
        <_>
          0 4 14 41 -1.</_>
        <_>
          7 4 7 41 2.</_></rects>
      <tilted>0</tilted></_>
    <_>
      <rects>
        <_>
          0 7 10 24 -1.</_>
        <_>
          5 7 5 24 2.</_></rects>
      <tilted>0</tilted></_>
    <_>
      <rects>
        <_>
          0 17 14 31 -1.</_>
        <_>
          7 17 7 31 2.</_></rects>
      <tilted>0</tilted></_>
    <_>
      <rects>
        <_>
          0 19 18 18 -1.</_>
        <_>
          6 19 6 18 3.</_></rects>
      <tilted>0</tilted></_>
    <_>
      <rects>
        <_>
          3 3 30 6 -1.</_>
        <_>
          18 3 15 6 2.</_></rects>
      <tilted>0</tilted></_>
    <_>
      <rects>
        <_>
          6 21 13 18 -1.</_>
        <_>
          6 27 13 6 3.</_></rects>
      <tilted>0</tilted></_>
    <_>
      <rects>
        <_>
          6 43 34 4 -1.</_>
        <_>
          6 45 34 2 2.</_></rects>
      <tilted>0</tilted></_>
    <_>
      <rects>
        <_>
          8 3 38 4 -1.</_>
        <_>
          8 5 38 2 2.</_></rects>
      <tilted>0</tilted></_>
    <_>
      <rects>
        <_>
          8 15 20 10 -1.</_>
        <_>
          8 15 10 5 2.</_>
        <_>
          18 20 10 5 2.</_></rects>
      <tilted>0</tilted></_>
    <_>
      <rects>
        <_>
          8 35 32 7 -1.</_>
        <_>
          24 35 16 7 2.</_></rects>
      <tilted>0</tilted></_>
    <_>
      <rects>
        <_>
          8 40 34 10 -1.</_>
        <_>
          8 45 34 5 2.</_></rects>
      <tilted>0</tilted></_>
    <_>
      <rects>
        <_>
          9 7 30 40 -1.</_>
        <_>
          9 7 15 20 2.</_>
        <_>
          24 27 15 20 2.</_></rects>
      <tilted>0</tilted></_>
    <_>
      <rects>
        <_>
          10 2 29 6 -1.</_>
        <_>
          10 5 29 3 2.</_></rects>
      <tilted>0</tilted></_>
    <_>
      <rects>
        <_>
          10 3 28 40 -1.</_>
        <_>
          10 3 14 20 2.</_>
        <_>
          24 23 14 20 2.</_></rects>
      <tilted>0</tilted></_>
    <_>
      <rects>
        <_>
          10 37 32 2 -1.</_>
        <_>
          26 37 16 2 2.</_></rects>
      <tilted>0</tilted></_>
    <_>
      <rects>
        <_>
          11 37 28 6 -1.</_>
        <_>
          25 37 14 6 2.</_></rects>
      <tilted>0</tilted></_>
    <_>
      <rects>
        <_>
          12 18 9 15 -1.</_>
        <_>
          15 18 3 15 3.</_></rects>
      <tilted>0</tilted></_>
    <_>
      <rects>
        <_>
          13 20 21 8 -1.</_>
        <_>
          20 20 7 8 3.</_></rects>
      <tilted>0</tilted></_>
    <_>
      <rects>
        <_>
          13 26 12 6 -1.</_>
        <_>
          17 26 4 6 3.</_></rects>
      <tilted>0</tilted></_>
    <_>
      <rects>
        <_>
          15 14 20 2 -1.</_>
        <_>
          15 15 20 1 2.</_></rects>
      <tilted>0</tilted></_>
    <_>
      <rects>
        <_>
          16 40 24 10 -1.</_>
        <_>
          16 45 24 5 2.</_></rects>
      <tilted>0</tilted></_>
    <_>
      <rects>
        <_>
          18 8 12 15 -1.</_>
        <_>
          18 13 12 5 3.</_></rects>
      <tilted>0</tilted></_>
    <_>
      <rects>
        <_>
          18 33 10 12 -1.</_>
        <_>
          18 39 10 6 2.</_></rects>
      <tilted>0</tilted></_>
    <_>
      <rects>
        <_>
          20 23 20 12 -1.</_>
        <_>
          20 23 10 6 2.</_>
        <_>
          30 29 10 6 2.</_></rects>
      <tilted>0</tilted></_>
    <_>
      <rects>
        <_>
          21 3 24 6 -1.</_>
        <_>
          21 5 24 2 3.</_></rects>
      <tilted>0</tilted></_>
    <_>
      <rects>
        <_>
          22 2 18 9 -1.</_>
        <_>
          22 5 18 3 3.</_></rects>
      <tilted>0</tilted></_>
    <_>
      <rects>
        <_>
          22 29 14 8 -1.</_>
        <_>
          22 29 7 4 2.</_>
        <_>
          29 33 7 4 2.</_></rects>
      <tilted>0</tilted></_>
    <_>
      <rects>
        <_>
          25 1 12 8 -1.</_>
        <_>
          25 5 12 4 2.</_></rects>
      <tilted>0</tilted></_>
    <_>
      <rects>
        <_>
          25 23 14 14 -1.</_>
        <_>
          25 23 7 7 2.</_>
        <_>
          32 30 7 7 2.</_></rects>
      <tilted>0</tilted></_>
    <_>
      <rects>
        <_>
          26 8 8 20 -1.</_>
        <_>
          26 8 4 10 2.</_>
        <_>
          30 18 4 10 2.</_></rects>
      <tilted>0</tilted></_>
    <_>
      <rects>
        <_>
          35 19 15 22 -1.</_>
        <_>
          40 19 5 22 3.</_></rects>
      <tilted>0</tilted></_>
    <_>
      <rects>
        <_>
          36 6 14 24 -1.</_>
        <_>
          43 6 7 24 2.</_></rects>
      <tilted>0</tilted></_>
    <_>
      <rects>
        <_>
          38 9 12 29 -1.</_>
        <_>
          44 9 6 29 2.</_></rects>
      <tilted>0</tilted></_>
    <_>
      <rects>
        <_>
          41 8 6 29 -1.</_>
        <_>
          44 8 3 29 2.</_></rects>
      <tilted>0</tilted></_></features></cascade>
</opencv_storage>
